#pragma once
#include <cstdarg>
namespace Eloquent {
    namespace ML {
        namespace Port {
            class RandomForestRegressor {
                public:
                    /**
                    * Predict class for features vector
                    */
                    float predict(float *x) {
                        float y_pred = 0;
                        // tree #1
                        if (x[0] <= 36.44679641723633) {
                            if (x[2] <= 4.5) {
                                if (x[0] <= 36.21603584289551) {
                                    if (x[0] <= 35.99338150024414) {
                                        y_pred += 27.49033003994114;
                                    }

                                    else {
                                        y_pred += 27.058201058201057;
                                    }
                                }

                                else {
                                    if (x[1] <= 48.82360076904297) {
                                        y_pred += 27.34474327628362;
                                    }

                                    else {
                                        y_pred += 25.528255528255528;
                                    }
                                }
                            }

                            else {
                                if (x[0] <= 36.40787696838379) {
                                    if (x[0] <= 36.32440376281738) {
                                        y_pred += 22.09090909090909;
                                    }

                                    else {
                                        y_pred += 22.942857142857143;
                                    }
                                }

                                else {
                                    if (x[2] <= 5.5) {
                                        y_pred += 21.136363636363637;
                                    }

                                    else {
                                        y_pred += 22.4375;
                                    }
                                }
                            }
                        }

                        else {
                            if (x[2] <= 2.5) {
                                if (x[1] <= 48.26227951049805) {
                                    if (x[0] <= 38.708913803100586) {
                                        y_pred += 27.631782945736433;
                                    }

                                    else {
                                        y_pred += 27.350710900473935;
                                    }
                                }

                                else {
                                    if (x[0] <= 36.529991149902344) {
                                        y_pred += 27.91176470588235;
                                    }

                                    else {
                                        y_pred += 27.376288659793815;
                                    }
                                }
                            }

                            else {
                                if (x[1] <= 41.723594665527344) {
                                    if (x[2] <= 4.5) {
                                        y_pred += 26.75212947189097;
                                    }

                                    else {
                                        y_pred += 22.258426966292134;
                                    }
                                }

                                else {
                                    if (x[0] <= 39.00469207763672) {
                                        y_pred += 22.247057958223007;
                                    }

                                    else {
                                        y_pred += 26.755020080321284;
                                    }
                                }
                            }
                        }

                        // tree #2
                        if (x[0] <= 36.454484939575195) {
                            if (x[2] <= 4.5) {
                                if (x[0] <= 36.005788803100586) {
                                    if (x[0] <= 35.37758445739746) {
                                        y_pred += 27.526449712066427;
                                    }

                                    else {
                                        y_pred += 27.393141153081512;
                                    }
                                }

                                else {
                                    if (x[1] <= 49.90265083312988) {
                                        y_pred += 27.38095238095238;
                                    }

                                    else {
                                        y_pred += 26.04507512520868;
                                    }
                                }
                            }

                            else {
                                if (x[1] <= 61.09247016906738) {
                                    if (x[1] <= 55.26837158203125) {
                                        y_pred += 21.952380952380953;
                                    }

                                    else {
                                        y_pred += 22.95;
                                    }
                                }

                                else {
                                    if (x[0] <= 36.32268142700195) {
                                        y_pred += 20.24;
                                    }

                                    else {
                                        y_pred += 21.925925925925927;
                                    }
                                }
                            }
                        }

                        else {
                            if (x[2] <= 2.5) {
                                if (x[1] <= 49.770524978637695) {
                                    if (x[0] <= 39.314483642578125) {
                                        y_pred += 27.648290300069785;
                                    }

                                    else {
                                        y_pred += 27.285714285714285;
                                    }
                                }

                                else {
                                    if (x[0] <= 38.56355285644531) {
                                        y_pred += 27.422636103151863;
                                    }

                                    else {
                                        y_pred += 27.76829268292683;
                                    }
                                }
                            }

                            else {
                                if (x[1] <= 40.74463653564453) {
                                    if (x[2] <= 4.5) {
                                        y_pred += 26.94176706827309;
                                    }

                                    else {
                                        y_pred += 22.20909090909091;
                                    }
                                }

                                else {
                                    if (x[0] <= 38.934879302978516) {
                                        y_pred += 22.248729490344125;
                                    }

                                    else {
                                        y_pred += 26.6875;
                                    }
                                }
                            }
                        }

                        // tree #3
                        if (x[0] <= 36.44503211975098) {
                            if (x[2] <= 4.5) {
                                if (x[0] <= 36.00195503234863) {
                                    if (x[0] <= 35.99639701843262) {
                                        y_pred += 27.504534908247205;
                                    }

                                    else {
                                        y_pred += 28.40909090909091;
                                    }
                                }

                                else {
                                    if (x[1] <= 46.065223693847656) {
                                        y_pred += 27.445062586926287;
                                    }

                                    else {
                                        y_pred += 26.09090909090909;
                                    }
                                }
                            }

                            else {
                                if (x[1] <= 61.09247016906738) {
                                    if (x[0] <= 36.41263771057129) {
                                        y_pred += 22.494444444444444;
                                    }

                                    else {
                                        y_pred += 21.11904761904762;
                                    }
                                }

                                else {
                                    if (x[0] <= 36.32381820678711) {
                                        y_pred += 20.142857142857142;
                                    }

                                    else {
                                        y_pred += 21.36842105263158;
                                    }
                                }
                            }
                        }

                        else {
                            if (x[2] <= 2.5) {
                                if (x[1] <= 28.266592025756836) {
                                    if (x[0] <= 37.83037567138672) {
                                        y_pred += 27.114503816793892;
                                    }

                                    else {
                                        y_pred += 27.60810810810811;
                                    }
                                }

                                else {
                                    if (x[1] <= 38.095930099487305) {
                                        y_pred += 27.735416666666666;
                                    }

                                    else {
                                        y_pred += 27.529714285714284;
                                    }
                                }
                            }

                            else {
                                if (x[1] <= 40.74516296386719) {
                                    if (x[2] <= 4.5) {
                                        y_pred += 26.954501452081317;
                                    }

                                    else {
                                        y_pred += 22.170731707317074;
                                    }
                                }

                                else {
                                    if (x[0] <= 38.98976707458496) {
                                        y_pred += 22.237779558534275;
                                    }

                                    else {
                                        y_pred += 26.945054945054945;
                                    }
                                }
                            }
                        }

                        // tree #4
                        if (x[0] <= 36.48309135437012) {
                            if (x[2] <= 4.5) {
                                if (x[0] <= 36.12508201599121) {
                                    if (x[0] <= 35.86337089538574) {
                                        y_pred += 27.505836151412677;
                                    }

                                    else {
                                        y_pred += 27.24129651860744;
                                    }
                                }

                                else {
                                    if (x[1] <= 48.82119560241699) {
                                        y_pred += 27.35754189944134;
                                    }

                                    else {
                                        y_pred += 25.52428810720268;
                                    }
                                }
                            }

                            else {
                                if (x[1] <= 62.273759841918945) {
                                    if (x[0] <= 36.39566230773926) {
                                        y_pred += 22.41578947368421;
                                    }

                                    else {
                                        y_pred += 21.592105263157894;
                                    }
                                }

                                else {
                                    y_pred += 20.304347826086957;
                                }
                            }
                        }

                        else {
                            if (x[2] <= 2.5) {
                                if (x[1] <= 28.332582473754883) {
                                    if (x[0] <= 36.5855655670166) {
                                        y_pred += 26.318181818181817;
                                    }

                                    else {
                                        y_pred += 27.319371727748692;
                                    }
                                }

                                else {
                                    if (x[1] <= 34.66836929321289) {
                                        y_pred += 27.780669144981413;
                                    }

                                    else {
                                        y_pred += 27.452800829875518;
                                    }
                                }
                            }

                            else {
                                if (x[1] <= 41.73553466796875) {
                                    if (x[2] <= 4.5) {
                                        y_pred += 26.797345132743363;
                                    }

                                    else {
                                        y_pred += 21.87878787878788;
                                    }
                                }

                                else {
                                    if (x[0] <= 38.987548828125) {
                                        y_pred += 22.258523251948436;
                                    }

                                    else {
                                        y_pred += 26.69672131147541;
                                    }
                                }
                            }
                        }

                        // tree #5
                        if (x[0] <= 36.50303649902344) {
                            if (x[2] <= 4.5) {
                                if (x[0] <= 36.21463203430176) {
                                    if (x[0] <= 36.00128936767578) {
                                        y_pred += 27.468497232865047;
                                    }

                                    else {
                                        y_pred += 27.075498575498575;
                                    }
                                }

                                else {
                                    if (x[1] <= 51.40633201599121) {
                                        y_pred += 27.0;
                                    }

                                    else {
                                        y_pred += 25.298387096774192;
                                    }
                                }
                            }

                            else {
                                if (x[1] <= 60.09258270263672) {
                                    if (x[0] <= 36.395660400390625) {
                                        y_pred += 22.54605263157895;
                                    }

                                    else {
                                        y_pred += 21.822222222222223;
                                    }
                                }

                                else {
                                    if (x[0] <= 36.39882850646973) {
                                        y_pred += 20.2;
                                    }

                                    else {
                                        y_pred += 22.36842105263158;
                                    }
                                }
                            }
                        }

                        else {
                            if (x[2] <= 2.5) {
                                if (x[1] <= 48.62677764892578) {
                                    if (x[1] <= 46.240020751953125) {
                                        y_pred += 27.561789234268385;
                                    }

                                    else {
                                        y_pred += 27.835164835164836;
                                    }
                                }

                                else {
                                    if (x[1] <= 60.317710876464844) {
                                        y_pred += 27.37628111273792;
                                    }

                                    else {
                                        y_pred += 27.675675675675677;
                                    }
                                }
                            }

                            else {
                                if (x[1] <= 41.65283203125) {
                                    if (x[2] <= 4.5) {
                                        y_pred += 26.902416356877325;
                                    }

                                    else {
                                        y_pred += 22.410404624277458;
                                    }
                                }

                                else {
                                    if (x[0] <= 38.91147422790527) {
                                        y_pred += 22.24636881779739;
                                    }

                                    else {
                                        y_pred += 26.262798634812288;
                                    }
                                }
                            }
                        }

                        return y_pred / 5;
                    }

                protected:
                };
            }
        }
    }